digraph Tree {
node [shape=box] ;
0 [label="FTI <= 170.5\nentropy = 0.207\nsamples = 2800\nvalue = [8, 7, 62, 2723]"] ;
1 [label="T3 <= 3.167\nentropy = 0.075\nsamples = 2687\nvalue = [8, 7, 5, 2667]"] ;
0 -> 1 [labeldistance=2.5, labelangle=45, headlabel="True"] ;
2 [label="FTI <= 155.5\nentropy = 0.018\nsamples = 2571\nvalue = [0, 1, 3, 2567]"] ;
1 -> 2 ;
3 [label="pregnant <= 0.5\nentropy = 0.005\nsamples = 2499\nvalue = [0, 1, 0, 2498]"] ;
2 -> 3 ;
4 [label="entropy = 0.0\nsamples = 2478\nvalue = [0, 0, 0, 2478]"] ;
3 -> 4 ;
5 [label="age <= 19.5\nentropy = 0.276\nsamples = 21\nvalue = [0, 1, 0, 20]"] ;
3 -> 5 ;
6 [label="entropy = 0.0\nsamples = 1\nvalue = [0, 1, 0, 0]"] ;
5 -> 6 ;
7 [label="entropy = 0.0\nsamples = 20\nvalue = [0, 0, 0, 20]"] ;
5 -> 7 ;
8 [label="T4U <= 0.978\nentropy = 0.25\nsamples = 72\nvalue = [0, 0, 3, 69]"] ;
2 -> 8 ;
9 [label="entropy = 0.0\nsamples = 55\nvalue = [0, 0, 0, 55]"] ;
8 -> 9 ;
10 [label="T3 <= 2.6\nentropy = 0.672\nsamples = 17\nvalue = [0, 0, 3, 14]"] ;
8 -> 10 ;
11 [label="TSH <= 0.025\nentropy = 0.353\nsamples = 15\nvalue = [0, 0, 1, 14]"] ;
10 -> 11 ;
12 [label="TT4 <= 167.0\nentropy = 1.0\nsamples = 2\nvalue = [0, 0, 1, 1]"] ;
11 -> 12 ;
13 [label="entropy = 0.0\nsamples = 1\nvalue = [0, 0, 1, 0]"] ;
12 -> 13 ;
14 [label="entropy = 0.0\nsamples = 1\nvalue = [0, 0, 0, 1]"] ;
12 -> 14 ;
15 [label="entropy = 0.0\nsamples = 13\nvalue = [0, 0, 0, 13]"] ;
11 -> 15 ;
16 [label="entropy = 0.0\nsamples = 2\nvalue = [0, 0, 2, 0]"] ;
10 -> 16 ;
17 [label="tumor <= 0.5\nentropy = 0.773\nsamples = 116\nvalue = [8, 6, 2, 100]"] ;
1 -> 17 ;
18 [label="age <= 53.5\nentropy = 0.515\nsamples = 107\nvalue = [8, 0, 2, 97]"] ;
17 -> 18 ;
19 [label="T3 <= 4.75\nentropy = 0.172\nsamples = 78\nvalue = [0, 0, 2, 76]"] ;
18 -> 19 ;
20 [label="entropy = 0.0\nsamples = 67\nvalue = [0, 0, 0, 67]"] ;
19 -> 20 ;
21 [label="T4U <= 1.199\nentropy = 0.684\nsamples = 11\nvalue = [0, 0, 2, 9]"] ;
19 -> 21 ;
22 [label="FTI <= 89.875\nentropy = 1.0\nsamples = 4\nvalue = [0, 0, 2, 2]"] ;
21 -> 22 ;
23 [label="entropy = 0.0\nsamples = 2\nvalue = [0, 0, 0, 2]"] ;
22 -> 23 ;
24 [label="entropy = 0.0\nsamples = 2\nvalue = [0, 0, 2, 0]"] ;
22 -> 24 ;
25 [label="entropy = 0.0\nsamples = 7\nvalue = [0, 0, 0, 7]"] ;
21 -> 25 ;
26 [label="age <= 66.0\nentropy = 0.85\nsamples = 29\nvalue = [8, 0, 0, 21]"] ;
18 -> 26 ;
27 [label="TSH <= 0.082\nentropy = 0.991\nsamples = 18\nvalue = [8, 0, 0, 10]"] ;
26 -> 27 ;
28 [label="entropy = 0.0\nsamples = 6\nvalue = [6, 0, 0, 0]"] ;
27 -> 28 ;
29 [label="FTI <= 81.0\nentropy = 0.65\nsamples = 12\nvalue = [2, 0, 0, 10]"] ;
27 -> 29 ;
30 [label="entropy = 0.0\nsamples = 1\nvalue = [1, 0, 0, 0]"] ;
29 -> 30 ;
31 [label="TSH measured <= 0.5\nentropy = 0.439\nsamples = 11\nvalue = [1, 0, 0, 10]"] ;
29 -> 31 ;
32 [label="entropy = 0.0\nsamples = 1\nvalue = [1, 0, 0, 0]"] ;
31 -> 32 ;
33 [label="entropy = 0.0\nsamples = 10\nvalue = [0, 0, 0, 10]"] ;
31 -> 33 ;
34 [label="entropy = 0.0\nsamples = 11\nvalue = [0, 0, 0, 11]"] ;
26 -> 34 ;
35 [label="TT4 <= 161.5\nentropy = 0.918\nsamples = 9\nvalue = [0, 6, 0, 3]"] ;
17 -> 35 ;
36 [label="T3 measured <= 0.5\nentropy = 0.592\nsamples = 7\nvalue = [0, 6, 0, 1]"] ;
35 -> 36 ;
37 [label="entropy = 0.0\nsamples = 1\nvalue = [0, 0, 0, 1]"] ;
36 -> 37 ;
38 [label="entropy = 0.0\nsamples = 6\nvalue = [0, 6, 0, 0]"] ;
36 -> 38 ;
39 [label="entropy = 0.0\nsamples = 2\nvalue = [0, 0, 0, 2]"] ;
35 -> 39 ;
40 [label="on thyroxine <= 0.5\nentropy = 1.0\nsamples = 113\nvalue = [0, 0, 57, 56]"] ;
0 -> 40 [labeldistance=2.5, labelangle=-45, headlabel="False"] ;
41 [label="TSH <= 0.325\nentropy = 0.922\nsamples = 86\nvalue = [0, 0, 57, 29]"] ;
40 -> 41 ;
42 [label="TT4 <= 140.5\nentropy = 0.755\nsamples = 69\nvalue = [0, 0, 54, 15]"] ;
41 -> 42 ;
43 [label="entropy = 0.0\nsamples = 5\nvalue = [0, 0, 0, 5]"] ;
42 -> 43 ;
44 [label="psych <= 0.5\nentropy = 0.625\nsamples = 64\nvalue = [0, 0, 54, 10]"] ;
42 -> 44 ;
45 [label="TT4 <= 174.5\nentropy = 0.555\nsamples = 62\nvalue = [0, 0, 54, 8]"] ;
44 -> 45 ;
46 [label="entropy = 0.0\nsamples = 18\nvalue = [0, 0, 18, 0]"] ;
45 -> 46 ;
47 [label="age <= 54.0\nentropy = 0.684\nsamples = 44\nvalue = [0, 0, 36, 8]"] ;
45 -> 47 ;
48 [label="TSH <= 0.067\nentropy = 0.871\nsamples = 24\nvalue = [0, 0, 17, 7]"] ;
47 -> 48 ;
49 [label="query hypothyroid <= 0.5\nentropy = 0.414\nsamples = 12\nvalue = [0, 0, 11, 1]"] ;
48 -> 49 ;
50 [label="entropy = 0.0\nsamples = 11\nvalue = [0, 0, 11, 0]"] ;
49 -> 50 ;
51 [label="entropy = 0.0\nsamples = 1\nvalue = [0, 0, 0, 1]"] ;
49 -> 51 ;
52 [label="T4U <= 0.99\nentropy = 1.0\nsamples = 12\nvalue = [0, 0, 6, 6]"] ;
48 -> 52 ;
53 [label="sex <= 0.5\nentropy = 0.722\nsamples = 5\nvalue = [0, 0, 1, 4]"] ;
52 -> 53 ;
54 [label="entropy = 0.0\nsamples = 4\nvalue = [0, 0, 0, 4]"] ;
53 -> 54 ;
55 [label="entropy = 0.0\nsamples = 1\nvalue = [0, 0, 1, 0]"] ;
53 -> 55 ;
56 [label="TSH <= 0.115\nentropy = 0.863\nsamples = 7\nvalue = [0, 0, 5, 2]"] ;
52 -> 56 ;
57 [label="entropy = 0.0\nsamples = 2\nvalue = [0, 0, 0, 2]"] ;
56 -> 57 ;
58 [label="entropy = 0.0\nsamples = 5\nvalue = [0, 0, 5, 0]"] ;
56 -> 58 ;
59 [label="age <= 83.5\nentropy = 0.286\nsamples = 20\nvalue = [0, 0, 19, 1]"] ;
47 -> 59 ;
60 [label="entropy = 0.0\nsamples = 19\nvalue = [0, 0, 19, 0]"] ;
59 -> 60 ;
61 [label="entropy = 0.0\nsamples = 1\nvalue = [0, 0, 0, 1]"] ;
59 -> 61 ;
62 [label="entropy = 0.0\nsamples = 2\nvalue = [0, 0, 0, 2]"] ;
44 -> 62 ;
63 [label="FTI <= 202.5\nentropy = 0.672\nsamples = 17\nvalue = [0, 0, 3, 14]"] ;
41 -> 63 ;
64 [label="TSH measured <= 0.5\nentropy = 0.353\nsamples = 15\nvalue = [0, 0, 1, 14]"] ;
63 -> 64 ;
65 [label="T4U <= 0.862\nentropy = 0.811\nsamples = 4\nvalue = [0, 0, 1, 3]"] ;
64 -> 65 ;
66 [label="entropy = 0.0\nsamples = 3\nvalue = [0, 0, 0, 3]"] ;
65 -> 66 ;
67 [label="entropy = 0.0\nsamples = 1\nvalue = [0, 0, 1, 0]"] ;
65 -> 67 ;
68 [label="entropy = 0.0\nsamples = 11\nvalue = [0, 0, 0, 11]"] ;
64 -> 68 ;
69 [label="entropy = 0.0\nsamples = 2\nvalue = [0, 0, 2, 0]"] ;
63 -> 69 ;
70 [label="entropy = 0.0\nsamples = 27\nvalue = [0, 0, 0, 27]"] ;
40 -> 70 ;
}